{"layers":[{"v":[-1.247350105199123,0.5445865747516095,-0.524671458942995,0.46334263779000096,-0.6758611116877467,0.6819256043089312,-0.09034512751805412,0.08712520640898777],"y":[-0.8475388977266471,0.4964519765847224,-0.48129740283931643,0.4328046323091773,-0.5888220960386836,0.5927698142323548,-0.09010012114074833,0.08690542366392653],"delta":[0.000579219079001882,-0.0015263435576864642,-0.001794390690318672,0.0006883743617068488,-0.0003611709144795019,-0.00022818618537361008,-0.004246372874427525,0.004992709902087833],"prev_delta":[0.0000463362555555967,-0.00010648977219757856,-0.00015277825396763575,0.00005640640923514409,-0.000027529243474473042,-0.00003302807729157017,-0.00031876609815402484,0.00037985068179676633],"w":[[-0.4371131070061203,-1.1196584761120816,0.11323806653167444,0.21787641225501564,-0.3889968737257691],[1.0904240072071891,-0.5027073553372386,-0.7927795481519495,-0.1114545091867454,0.714475343536235],[0.8394885446005576,-0.7240866979637239,-0.6576892275671377,-1.2803156192404141,0.8316199467411326],[0.23343641143073174,0.10080683711927495,0.1479438395349375,0.3517352242637425,-0.3095143203372946],[0.13169556448602276,-0.2382133950054185,0.3779470466981783,-0.395513375889638,-0.980918557796052],[0.5163483123112437,-0.034458749604167595,0.24906514757087048,-0.7206753556550096,0.8244108417105896],[1.8741448018129236,-1.215090613551582,-0.7588697675001327,-1.2123343510149955,0.4757349994014266],[-2.0662724887268276,0.8698440168395725,0.8686308657276137,1.6335048504881018,-0.3858983451306788]]},{"v":[-0.6928224225854491,0.10887114406517426,-2.0240002721042307],"y":[-0.5997921143961262,0.10844302652380702,-0.9656845634618085],"delta":[0.0016885685747952332,0.002270219010759113,-0.0001643491025505881],"prev_delta":[0.00014591347879250321,0.00015525306035759268,-0.000035625843339433334],"w":[[0.5459495082582567,0.7295810503167919,-0.05079776482027273,0.15610269861181067,-0.11227676655359256,0.042298272118686836,-0.7451421031997222,0.3547338956701101,0.3116748799684716],[-0.575641676823082,0.42521335606983784,-0.8284074966787148,-1.0843120044803989,0.4161178143049789,-0.271557430123986,0.40838622617258635,-2.0547831743228047,1.9224771861234788],[-0.6646175587633386,0.6076533932662321,0.2670882673162034,1.097272960075667,-0.5748223795458165,0.0971644831350477,0.13180431788185185,1.454196259780371,-1.0351790875131703]]},{"v":[0.802100570735264],"y":[0.802100570735264],"delta":[0.00868490444087438],"prev_delta":[0.0007198928975527566],"w":[[0.6328723473924615,0.3059694053506173,0.27710935785621466,-0.3341626186068162]]}],"learn_rate":0.1,"momentum":0.1,"error":0.00013290568413052103,"act_type":"Tanh"}