{"layers":[{"v":[3.974079190976063,-0.3115799639489185,-5.41992798641112,-2.097554534840045,-5.850958291409173,2.0661701822496754,2.6099122403082777,-0.7537144483035914],"y":[0.9992936251068109,-0.3018737665273161,-0.9999607958674496,-0.9703092157792568,-0.9999834442598623,0.9684162048622491,0.9892416276700001,-0.6373597136736151],"delta":[5.638699682871321e-7,-0.0012002423774469652,-8.390097999437991e-8,0.00005347309362314289,-2.470782929503914e-9,-0.00008393086621993068,-5.705855388975976e-7,-0.0008827833827972522],"prev_delta":[0.000046474316541793885,0.00022669626458933208,-2.2857036898943268e-7,0.0008829454641174873,1.328376943142079e-6,0.00014169880849932963,0.00016455157339834622,0.0012016590717833715],"w":[[0.8592398772764115,1.3976022191635353,0.914092465067048,0.589189089431996,1.293874794916653],[-3.3394806409215754,1.6103483997689985,1.010718182681029,-0.15570942182181569,1.650182776614511],[-1.5881332296912085,-1.7244284277137227,-0.9513174344441282,-1.5556429499370392,-0.8571559900574264],[-0.2673857076510817,-1.3777851932933467,-0.48581372853464566,-0.7211543480595993,0.21666220714105663],[-1.5763823935935162,-1.2380285183761597,-0.8178867902970328,-2.138227794584628,-1.5412848256341765],[0.4767344748276749,1.1917797949392233,0.3968770202496447,-0.10766268232115078,0.6586802532742191],[0.7606999546666866,0.29697417319695807,0.8935435966118096,0.7288510764557065,0.5498651754159528],[0.6087135098437129,0.04272745033482161,-0.16663223174256322,-0.6766193077679319,-1.0867712303639918]]},{"v":[-2.7012236788960498,1.0506115785158343,-1.00778847582125],"y":[-0.991029336155294,0.7820440127209218,-0.7648457627947176],"delta":[-0.000027173412647668984,-0.0018691815202598477,-0.0018417832113957495],"prev_delta":[-0.0011243226861384391,-0.004673373285605691,-0.0033338356910734405],"w":[[-4.8168929829163565,-5.544958554172189,-5.032724065189496,-4.250972849715448,-4.448057411458486,-4.177284479130957,-5.456894582063898,-4.306004155712261,-4.609131537022188],[0.358059014250017,0.22075560380813344,2.0324844769429435,1.0619313049904453,0.37081430686218403,-0.37198800196666826,1.2585811643258318,1.1350958893537526,0.3239857893282071],[0.47237875827698517,-0.5074618263655863,-1.3355996753264023,0.07535744926945258,-0.9762059814148576,0.5201870505040996,-0.2450142704221091,-1.0697851450669686,0.6783976146405414]]},{"v":[0.8351791666460058],"y":[0.8351791666460058],"delta":[-0.0034920594541851297],"prev_delta":[-0.0014744652837932089],"w":[[3.1209174541013964,3.018172736572769,3.192876812364198,2.342447125347309]]}],"learn_rate":0.01,"momentum":0.1,"error":0.000030445564143211533,"act_type":"Tanh"}